digraph Tree {
node [shape=box] ;
0 [label="X[2] <= 1.255\ngini = 0.334\nsamples = 5700\nvalue = [4490, 1210]"] ;
1 [label="X[2] <= 1.102\ngini = 0.002\nsamples = 4427\nvalue = [4422, 5]"] ;
0 -> 1 [labeldistance=2.5, labelangle=45, headlabel="True"] ;
2 [label="X[3] <= 0.756\ngini = 0.001\nsamples = 4376\nvalue = [4374, 2]"] ;
1 -> 2 ;
3 [label="gini = 0.0\nsamples = 4231\nvalue = [4231, 0]"] ;
2 -> 3 ;
4 [label="X[2] <= 0.362\ngini = 0.027\nsamples = 145\nvalue = [143, 2]"] ;
2 -> 4 ;
5 [label="X[2] <= -0.461\ngini = 0.014\nsamples = 144\nvalue = [143, 1]"] ;
4 -> 5 ;
6 [label="gini = 0.0\nsamples = 127\nvalue = [127, 0]"] ;
5 -> 6 ;
7 [label="X[3] <= 2.03\ngini = 0.111\nsamples = 17\nvalue = [16, 1]"] ;
5 -> 7 ;
8 [label="gini = 0.0\nsamples = 16\nvalue = [16, 0]"] ;
7 -> 8 ;
9 [label="gini = 0.0\nsamples = 1\nvalue = [0, 1]"] ;
7 -> 9 ;
10 [label="gini = 0.0\nsamples = 1\nvalue = [0, 1]"] ;
4 -> 10 ;
11 [label="X[1] <= -0.992\ngini = 0.111\nsamples = 51\nvalue = [48, 3]"] ;
1 -> 11 ;
12 [label="gini = 0.0\nsamples = 48\nvalue = [48, 0]"] ;
11 -> 12 ;
13 [label="gini = 0.0\nsamples = 3\nvalue = [0, 3]"] ;
11 -> 13 ;
14 [label="X[3] <= -0.479\ngini = 0.101\nsamples = 1273\nvalue = [68, 1205]"] ;
0 -> 14 [labeldistance=2.5, labelangle=-45, headlabel="False"] ;
15 [label="gini = 0.0\nsamples = 8\nvalue = [8, 0]"] ;
14 -> 15 ;
16 [label="X[0] <= 1.566\ngini = 0.09\nsamples = 1265\nvalue = [60, 1205]"] ;
14 -> 16 ;
17 [label="X[3] <= -0.36\ngini = 0.035\nsamples = 1060\nvalue = [19, 1041]"] ;
16 -> 17 ;
18 [label="X[2] <= 1.433\ngini = 0.413\nsamples = 24\nvalue = [7, 17]"] ;
17 -> 18 ;
19 [label="gini = 0.0\nsamples = 3\nvalue = [3, 0]"] ;
18 -> 19 ;
20 [label="X[4] <= -1.34\ngini = 0.308\nsamples = 21\nvalue = [4, 17]"] ;
18 -> 20 ;
21 [label="gini = 0.0\nsamples = 1\nvalue = [1, 0]"] ;
20 -> 21 ;
22 [label="X[2] <= 1.55\ngini = 0.255\nsamples = 20\nvalue = [3, 17]"] ;
20 -> 22 ;
23 [label="X[4] <= 1.245\ngini = 0.117\nsamples = 16\nvalue = [1, 15]"] ;
22 -> 23 ;
24 [label="gini = 0.0\nsamples = 13\nvalue = [0, 13]"] ;
23 -> 24 ;
25 [label="X[3] <= -0.387\ngini = 0.444\nsamples = 3\nvalue = [1, 2]"] ;
23 -> 25 ;
26 [label="gini = 0.0\nsamples = 1\nvalue = [1, 0]"] ;
25 -> 26 ;
27 [label="gini = 0.0\nsamples = 2\nvalue = [0, 2]"] ;
25 -> 27 ;
28 [label="X[4] <= -0.319\ngini = 0.5\nsamples = 4\nvalue = [2, 2]"] ;
22 -> 28 ;
29 [label="gini = 0.0\nsamples = 2\nvalue = [2, 0]"] ;
28 -> 29 ;
30 [label="gini = 0.0\nsamples = 2\nvalue = [0, 2]"] ;
28 -> 30 ;
31 [label="X[2] <= 2.323\ngini = 0.023\nsamples = 1036\nvalue = [12, 1024]"] ;
17 -> 31 ;
32 [label="X[1] <= -1.153\ngini = 0.021\nsamples = 1035\nvalue = [11, 1024]"] ;
31 -> 32 ;
33 [label="X[3] <= 0.126\ngini = 0.238\nsamples = 29\nvalue = [4, 25]"] ;
32 -> 33 ;
34 [label="gini = 0.0\nsamples = 20\nvalue = [0, 20]"] ;
33 -> 34 ;
35 [label="X[4] <= -0.925\ngini = 0.494\nsamples = 9\nvalue = [4, 5]"] ;
33 -> 35 ;
36 [label="X[4] <= -0.948\ngini = 0.32\nsamples = 5\nvalue = [4, 1]"] ;
35 -> 36 ;
37 [label="gini = 0.0\nsamples = 1\nvalue = [0, 1]"] ;
36 -> 37 ;
38 [label="gini = 0.0\nsamples = 4\nvalue = [4, 0]"] ;
36 -> 38 ;
39 [label="gini = 0.0\nsamples = 4\nvalue = [0, 4]"] ;
35 -> 39 ;
40 [label="X[1] <= -0.941\ngini = 0.014\nsamples = 1006\nvalue = [7, 999]"] ;
32 -> 40 ;
41 [label="X[1] <= -0.946\ngini = 0.054\nsamples = 145\nvalue = [4, 141]"] ;
40 -> 41 ;
42 [label="X[3] <= 0.634\ngini = 0.014\nsamples = 137\nvalue = [1, 136]"] ;
41 -> 42 ;
43 [label="gini = 0.0\nsamples = 127\nvalue = [0, 127]"] ;
42 -> 43 ;
44 [label="X[3] <= 0.635\ngini = 0.18\nsamples = 10\nvalue = [1, 9]"] ;
42 -> 44 ;
45 [label="X[4] <= -0.702\ngini = 0.5\nsamples = 2\nvalue = [1, 1]"] ;
44 -> 45 ;
46 [label="gini = 0.0\nsamples = 1\nvalue = [0, 1]"] ;
45 -> 46 ;
47 [label="gini = 0.0\nsamples = 1\nvalue = [1, 0]"] ;
45 -> 47 ;
48 [label="gini = 0.0\nsamples = 8\nvalue = [0, 8]"] ;
44 -> 48 ;
49 [label="X[3] <= 0.676\ngini = 0.469\nsamples = 8\nvalue = [3, 5]"] ;
41 -> 49 ;
50 [label="X[3] <= 0.623\ngini = 0.48\nsamples = 5\nvalue = [3, 2]"] ;
49 -> 50 ;
51 [label="gini = 0.0\nsamples = 2\nvalue = [0, 2]"] ;
50 -> 51 ;
52 [label="gini = 0.0\nsamples = 3\nvalue = [3, 0]"] ;
50 -> 52 ;
53 [label="gini = 0.0\nsamples = 3\nvalue = [0, 3]"] ;
49 -> 53 ;
54 [label="X[1] <= 0.164\ngini = 0.007\nsamples = 861\nvalue = [3, 858]"] ;
40 -> 54 ;
55 [label="X[1] <= 0.162\ngini = 0.015\nsamples = 406\nvalue = [3, 403]"] ;
54 -> 55 ;
56 [label="X[1] <= 0.146\ngini = 0.01\nsamples = 405\nvalue = [2, 403]"] ;
55 -> 56 ;
57 [label="X[3] <= 0.141\ngini = 0.005\nsamples = 387\nvalue = [1, 386]"] ;
56 -> 57 ;
58 [label="X[4] <= -0.156\ngini = 0.069\nsamples = 28\nvalue = [1, 27]"] ;
57 -> 58 ;
59 [label="gini = 0.0\nsamples = 27\nvalue = [0, 27]"] ;
58 -> 59 ;
60 [label="gini = 0.0\nsamples = 1\nvalue = [1, 0]"] ;
58 -> 60 ;
61 [label="gini = 0.0\nsamples = 359\nvalue = [0, 359]"] ;
57 -> 61 ;
62 [label="X[2] <= 1.786\ngini = 0.105\nsamples = 18\nvalue = [1, 17]"] ;
56 -> 62 ;
63 [label="gini = 0.0\nsamples = 17\nvalue = [0, 17]"] ;
62 -> 63 ;
64 [label="gini = 0.0\nsamples = 1\nvalue = [1, 0]"] ;
62 -> 64 ;
65 [label="gini = 0.0\nsamples = 1\nvalue = [1, 0]"] ;
55 -> 65 ;
66 [label="gini = 0.0\nsamples = 455\nvalue = [0, 455]"] ;
54 -> 66 ;
67 [label="gini = 0.0\nsamples = 1\nvalue = [1, 0]"] ;
31 -> 67 ;
68 [label="X[3] <= 0.912\ngini = 0.32\nsamples = 205\nvalue = [41, 164]"] ;
16 -> 68 ;
69 [label="X[1] <= 0.176\ngini = 0.433\nsamples = 41\nvalue = [28, 13]"] ;
68 -> 69 ;
70 [label="X[2] <= 1.723\ngini = 0.067\nsamples = 29\nvalue = [28, 1]"] ;
69 -> 70 ;
71 [label="X[3] <= 0.613\ngini = 0.245\nsamples = 7\nvalue = [6, 1]"] ;
70 -> 71 ;
72 [label="gini = 0.0\nsamples = 5\nvalue = [5, 0]"] ;
71 -> 72 ;
73 [label="X[3] <= 0.682\ngini = 0.5\nsamples = 2\nvalue = [1, 1]"] ;
71 -> 73 ;
74 [label="gini = 0.0\nsamples = 1\nvalue = [0, 1]"] ;
73 -> 74 ;
75 [label="gini = 0.0\nsamples = 1\nvalue = [1, 0]"] ;
73 -> 75 ;
76 [label="gini = 0.0\nsamples = 22\nvalue = [22, 0]"] ;
70 -> 76 ;
77 [label="gini = 0.0\nsamples = 12\nvalue = [0, 12]"] ;
69 -> 77 ;
78 [label="X[0] <= 2.034\ngini = 0.146\nsamples = 164\nvalue = [13, 151]"] ;
68 -> 78 ;
79 [label="X[0] <= 1.985\ngini = 0.013\nsamples = 150\nvalue = [1, 149]"] ;
78 -> 79 ;
80 [label="gini = 0.0\nsamples = 146\nvalue = [0, 146]"] ;
79 -> 80 ;
81 [label="X[3] <= 1.436\ngini = 0.375\nsamples = 4\nvalue = [1, 3]"] ;
79 -> 81 ;
82 [label="gini = 0.0\nsamples = 3\nvalue = [0, 3]"] ;
81 -> 82 ;
83 [label="gini = 0.0\nsamples = 1\nvalue = [1, 0]"] ;
81 -> 83 ;
84 [label="X[2] <= 2.78\ngini = 0.245\nsamples = 14\nvalue = [12, 2]"] ;
78 -> 84 ;
85 [label="X[3] <= 1.587\ngini = 0.142\nsamples = 13\nvalue = [12, 1]"] ;
84 -> 85 ;
86 [label="gini = 0.0\nsamples = 11\nvalue = [11, 0]"] ;
85 -> 86 ;
87 [label="X[3] <= 1.611\ngini = 0.5\nsamples = 2\nvalue = [1, 1]"] ;
85 -> 87 ;
88 [label="gini = 0.0\nsamples = 1\nvalue = [0, 1]"] ;
87 -> 88 ;
89 [label="gini = 0.0\nsamples = 1\nvalue = [1, 0]"] ;
87 -> 89 ;
90 [label="gini = 0.0\nsamples = 1\nvalue = [0, 1]"] ;
84 -> 90 ;
}
